5.800943528384217701e-02 -1.083719168320746773e+00 -7.863535387429079204e-01 5.167315578036619783e-01 9.908544937849654843e-01 1.148897806100367625e+00 6.089147311206144497e-01 4.942592344716034147e-01 -3.546324727423785100e-02 -5.193516867489046396e-01 -5.599609485844992962e-01 -5.120424561401398789e-01 -5.049432151678683312e-01 -5.163084014888794648e-01 -5.049748033062337882e-01 -5.859175125723673494e-01 -4.103151584986528544e-01 -3.500819359915685602e-01 -3.090589614834406973e-01 7.059592678557392864e-02 3.740996481392634410e-01 3.001918894587127240e-01 4.427794329745923796e-01 9.245617115049716006e-02 5.156541914620521583e-02 5.314834407948515471e-01 5.474212178884974023e-01 5.517572889810294923e-01 4.639856470587953585e-01 8.820768882812689560e-01 1.992227223342708520e-01 4.274058952850164350e-01 8.232787226317175300e-01 5.294953892170443099e-01 4.505742864657045210e-01 1.199213507884657956e-02 2.383261913690859213e-01 4.318567990762650077e-01 1.500522533522865021e-01 3.796909123515838091e-01 4.090721523931001857e-01 1.861550281579703314e-01 3.381905685374343995e-01 3.200633919924420479e-01 1.936728649264111701e-01 -7.070870030845367860e-02 5.638071941311611351e-02 4.047051370968749590e-02 3.093406370937880068e-01 1.238808979515597236e-01 3.141941228240067163e-01 4.755324040509748690e-02 5.764650057241356151e-01 5.092939666272657817e-01 3.475878885836018450e-01 6.218524583699117647e-01 2.733371339605908390e-01 3.228087312459943514e-01 3.986105074923840252e-01 7.519264844471729159e-02 9.557465481729106316e-02 1.270236257787228373e-01 -1.196678711612949968e-02 -4.566829822937062966e-02 3.351080656488242271e-01 1.291486179876843998e-01 -3.533182088938447048e-03 1.769874032824584054e-01 1.142638163033965065e-01 1.810501194412902082e-01 1.237647247429012401e-02 1.049148484271247572e-01 -2.435185752849379492e-02 -2.157963872570439756e-01 -2.219911545440743095e-01 -2.150314754629505110e-02 9.473291829832033994e-02 -3.877338565606006093e-02 -2.112134720675815647e-01 -9.778632981423586445e-02 4.433268442719272978e-02 8.264811890431328356e-02 -4.766502580346034662e-02 7.670030894523197085e-02 9.748197948706566196e-02 1.004523298869714615e-01 -4.533473277565741588e-02 1.143522465684442130e-01 1.630013620894462945e-01 7.562478652295254351e-03 1.226831877699385565e-01 2.772026653098725868e-01 7.152097900643329675e-02 -5.972543661684574096e-02 -4.257753802805042814e-02 -2.458397156466776146e-01 -8.610964096852861960e-02 -7.067495696032098651e-02 -9.748727673637642976e-02 -5.817717143919312606e-02 2.636956002473511140e-01 1.091299767411722799e-02 -8.859389014718558469e-03 4.514521292120417945e-02 -2.911656782508083990e-02 -8.522402900468414866e-02 7.989468354170081721e-02 2.260520968310877551e-02 5.515486326711930946e-03 1.292690577925541817e-01 1.499258994483382013e-01 8.098783756487773489e-02 1.776904286407608446e-01 1.033723606410350826e-01 1.797729219808595347e-01 1.007830982798492148e-01 -2.277860281619572824e-01 -1.834274412367186413e-01 5.521695894215418454e-02 -2.179984633281799866e-01 -2.874705528500901552e-01 -1.170811161315383625e-01 -9.337889429531766317e-02 -1.863077117092438173e-01 1.115668731226377580e-02 -4.712135177503305739e-02 8.560022642318280972e-02 -1.835747319453711474e-02 -1.026603578249826176e-01 -7.445985102971588998e-02 7.299477771677211069e-02 9.178659678230328923e-04 -3.555024291079690590e-02 1.900446351332750194e-01 -7.331111675849863452e-02 3.851226748720383564e-02 -8.399019745981239210e-03 1.425426471354913904e-02 -4.926405672527493090e-02 -5.604579522008350245e-02 -3.943872858022041267e-02 -1.369899295429036212e-01 -1.111328380351254835e-01 -8.315998644147333529e-02 -1.137682726857350418e-01 -1.775765227353451881e-01 -1.297145190701024242e-01 -1.046728421621134081e-01 -1.292307182349955452e-01 -1.497635599961875119e-01 -1.892620123562908374e-01 -2.610360892755974049e-01 -2.137588654890224260e-01 -2.749045941686551475e-01 -1.922039139078065006e-01 -2.501970656723928044e-01 -2.182653155063617734e-01 -1.890309367910438798e-01 -2.492469115016329173e-01 -1.963813917275139542e-01 -1.668099387718423587e-01 4.310467967922989585e-01 4.982439691378465207e-01 7.903073600695378897e-02 -3.815767303009949263e-01 -2.975756041328144752e-01 -2.155501852594631507e-01 -1.386808484988881485e-01 1.221752629421175157e-01 8.901072069261050101e-01 1.429303361027983943e+00 1.200325284836657680e+00 6.307782264760432023e-01 8.885879971436904112e-01 5.963273932800992050e-01 4.936161042692598366e-01 2.203025963443185353e-01 1.367666744184317107e-01 4.482350796456282538e-01 3.419363510191670286e-01 4.541964838920468095e-01 4.984902381018418982e-01 1.458912075803429909e-01 -3.748577646751526365e-03 9.118999598893313963e-02 -5.001335819455439251e-03 -3.463931981578585728e-02 2.512615455784642515e-01 -1.352253366358129594e-01 -5.427837501474266357e-01 -7.056220717424621647e-01 -5.306012181072261580e-01 -7.174172859237077926e-01 -6.991145476404979631e-01 -8.448373130816876353e-01 -4.455179059352597504e-01 -5.351239413522566046e-01 -8.430515316064907116e-01 -1.260130436174762059e+00 -7.860736961671946910e-01 -6.799913990147018472e-01 -4.594642757369060138e-01 -5.328448396085635475e-01 -6.910954768086327027e-01 -6.250718708379092957e-03 8.561994041927202537e-02 3.730836465193768797e-02 -7.036293529931376967e-02 -1.354704928306259548e-01 -4.892050528391286845e-01 -4.946370307910646358e-01 -2.805771176014137946e-01 2.726083725653817656e-03 -1.250641240782602026e-01 7.954165404507902715e-02 -1.984789123057620064e-01 -3.021722056781994681e-01 -1.350447623768253336e-01 -6.318393321782769800e-02 -6.373668762253431597e-01 -3.265693429268823889e-01 -4.824896203476671253e-01 -4.203762599337567130e-01 7.865612240990907389e-02 1.508492912961628685e-01 -7.608756459411607220e-02 9.337205359041065439e-03 7.177374422832773215e-02 -3.129174423287869877e-02 -1.771026853463550654e-01 3.553075186007343539e-02 3.012842401785774116e-01 -1.162711937359253989e-01 -1.582824269360204317e-01 -1.135482402094063759e-01 -2.159167869986120258e-01 -1.864472990279711362e-01 -1.255595934303211647e-01 -2.929861787279276486e-01 -3.120637516949969492e-01 -1.093451009759291714e-01 -6.477912940808923381e-02 -3.611457671747155939e-03 3.793323846584226167e-02 -5.169676481644333021e-01 -1.159128278127027067e-01 -2.272190937161827073e-01 9.132862179738139574e-02 2.982244691729671882e-01 1.779497549317664296e-01 2.687759974189172230e-01 3.171732189887160880e-01 4.288876910146182109e-01 2.489370630529654238e-01 -1.556961297164811131e-01 -4.460396285901045421e-01 -2.048662571177713165e-01 -2.492004999430836865e-01 -2.732959848093275967e-01 -1.958303548740740196e-01 -1.676188548067131801e-01 -2.036916481358195807e-01 -3.885053654912214438e-01 -5.239522652619441612e-01 -5.717709190270141573e-01 -4.318917520729767534e-01 -6.013042497391598573e-01 -4.618342087905644711e-01 -5.527124090561781333e-01 -5.739862563882617286e-01 -5.064685659378350691e-01 -6.953986355321327695e-01 -6.558870148967325120e-01 -6.436584176862505391e-01 -6.664949180390797867e-01 -8.433278656849205746e-01 -8.729598797884532413e-01 -8.054500717425409073e-01 -7.799549103784104709e-01 -1.045772148320678552e+00 -9.035926757712875457e-01 -6.401129323664443982e-01 -4.811803522729222182e-01 -4.199800535903727705e-01 -2.284678916585602959e-01 -1.467739063754600892e-01 -6.266887937232341887e-02 3.142018591890081980e-03 -1.077323182084410080e-01 -3.997131222803877032e-02 -1.060208427589138247e-01 -1.873116049305296738e-01 -2.175351090104155338e-01 -3.492922214487625410e-01 -2.511772022014904238e-01 -1.725647429923242437e-01 -2.431064679861189848e-01 -1.498315303726603653e-01 -1.518472516342314615e-01 -5.739356048252331963e-03 -9.432558849262277778e-02 1.179796758913629479e-01 8.917583592235692191e-02 1.418369731971964864e-01 1.640580797423266957e-01 5.159242179449722299e-01 6.306676489718034961e-01 4.587834607718990210e-01 4.428325725152407188e-01 2.780539115357353319e-01 3.706117619550176046e-01 4.564545520834640824e-01 4.977897258735706765e-01 3.740632123078961313e-01 5.035789400405651373e-01 3.611485492036765055e-01 3.803164977795202017e-01 4.493000191646012165e-01 4.391707038368873883e-01 4.895077814075404765e-01 4.375441910281419045e-01 3.009913709348785993e-01 2.301296185070371980e-01 3.094185562386318478e-01 5.109301747025848384e-01 3.354094052021896477e-01 4.572290086534448461e-01 6.714107966240479008e-01 7.720653407290126724e-01 7.761445629185576012e-01 8.664245591142942793e-01 8.471263141761701254e-01 9.182978705920250562e-01 7.960464295011436819e-01 8.216075582728666893e-01 8.851238353586863283e-01 8.505456816392293895e-01 9.014492801586467818e-01 9.738803190697755685e-01 9.427675378805486783e-01 9.395597207459346345e-01 9.404525713677215348e-01 9.323765020270852188e-01 8.732316573483059896e-01 9.006554971466442794e-01 8.260023725863959720e-01 7.591893384659635924e-01 7.133742297341322258e-01 7.115764158824766650e-01 7.162063336776653966e-01 7.725979364688082551e-01 7.299228494811851320e-01 6.300533374182899493e-01 6.461167777168816961e-01 7.350157149462117623e-01 7.442307641327459145e-01 6.890653722051702790e-01 6.671504849192954056e-01 7.015422462586106134e-01 7.141945418029955750e-01 7.168068241746107239e-01 7.799645169404058054e-01 8.062159272782616348e-01 6.644460802675288269e-01 6.640268200502471574e-01 6.232292317927020653e-01 6.430206532008284626e-01 6.087350430639042465e-01 6.263861112705157996e-01 6.073712906600964301e-01 5.625010618198800216e-01 5.597330555207682412e-01 5.167286034356892710e-01 6.313575056044448131e-01 6.401058550190726892e-01 5.367157127507318215e-01 5.531544036515555485e-01 4.948891704126362479e-01 5.119780940605509478e-01 5.302980010153514057e-01 5.782717502694005862e-01 5.488633955504770290e-01 4.369357474532878927e-01 3.766868131208984671e-01 3.521021818807990589e-01 4.029961529013054156e-01 5.021099791763388165e-01 4.560976920542744728e-01 4.844120265508191081e-01 4.277166940405065509e-01 3.358400792462621354e-01 2.561084056116029184e-01 3.690219555729361556e-01 3.447633849149574492e-01 3.939678991764632987e-01 3.902053845757101902e-01 2.959717483680030514e-01 2.993615552084046838e-01 2.271473233314447171e-01 3.582316774251583236e-01 4.014241901312640692e-01 3.993678771497511382e-01 3.855144732547978736e-01 3.198245212530651527e-01 4.224564640437671881e-01 4.549121297155085397e-01 4.122065123160562616e-01 3.360899572036046279e-01 4.260004814111231775e-01 3.416708706714544075e-01 3.169746945608742372e-01 2.776333079965119799e-01 3.265421374289880774e-01 2.967916916993913468e-01 2.205128036074238129e-01 3.553378297556950560e-01 3.876591033389329422e-01 3.190410099160898016e-01 2.701489773210167256e-01 2.269854987415881320e-01 1.549295964701517814e-01 2.196868095736350945e-01 2.943629072515127065e-01 2.568937880317770928e-01 2.430530308116652938e-01 2.355251352677055765e-01 3.180333146722945092e-01 1.864098961081795958e-01 1.325683051679972246e-01 1.901874263497201345e-01 1.601228383806833078e-01 2.183183340860729571e-01 2.704542397058639080e-01 2.294410168870053279e-01 1.403994913046781035e-01 1.687921824782502578e-01 1.100380614979998006e-01 9.593389127147024242e-02 1.161676833101076417e-01 1.949720188032184054e-01 1.578083432351224391e-01 1.202166952671590572e-01 1.795520364504365196e-01 1.992152066854887271e-01 2.234197327647236275e-01 1.514039179017981074e-01 2.247157935780064730e-01 2.446855389752116139e-01 1.519867263968548710e-01 1.730129155256236728e-01 1.851770293010523705e-01 1.296377171014407859e-01 1.202481851308756372e-01 1.073007238606334124e-01 1.184998576539001702e-01 8.990531821520027222e-02 9.410216311107538756e-02 1.046840656435518019e-01 9.530514778600719661e-02 7.215342199202838536e-02 6.678077326479785192e-02 1.427150769682844766e-01 7.154776873087884126e-02 1.101133019719437861e-01 1.225284427096812873e-01 6.770881364829435534e-02 5.641269846657594872e-02 8.717183541164595650e-02 6.765295701009092777e-02 1.585976225088583935e-02 2.371940792257535430e-02 6.232659468462518892e-02 6.032292198467685551e-02 9.002536323318430234e-02 1.891508617437721168e-02 1.124013742502389113e-01 1.422208704366376142e-01 3.907743656801866347e-03 -2.487598236491668502e-02 8.224123328248818254e-02 2.825357793407039415e-03 -3.434395325009319266e-02 -4.818030005075158578e-02 1.434216077268197359e-02 4.154265118628395342e-02 2.820569884352153861e-02 5.787261480508223283e-02 8.013031177725941923e-02 6.363945663448304646e-02 7.383914391553871026e-02 -4.138548062530766208e-02 5.365955290790335591e-02 6.999050115519785120e-02 7.814775467950663135e-02 5.916065431488785192e-02 6.755101971936368355e-02 4.865172221830179472e-02 9.662982015639226541e-02 4.367757699156169654e-02 5.920031469337169033e-02 3.239981824778980640e-02 8.439815287649354847e-02 7.893330708639847981e-02 8.440356196505201247e-02 7.879885687350833556e-02 8.967161373705975422e-03 7.404746594862995912e-02 4.147688380875525632e-02 5.021864024243290897e-02 1.251501234906454881e-02 -8.959229496029877393e-02 -2.558958732272443443e-02 -3.220702260485529961e-02 -4.437874864797618224e-02 3.848803093258712504e-02 2.453974406281108842e-02 3.260714548318624940e-03 4.046540967828242408e-02 3.559063487220884975e-02 -1.797546438397022023e-02 -5.000237163679005503e-03 -4.737139992882898054e-02 -1.795189178918007653e-02 -5.570690271742323625e-04 -3.299805650950187602e-02 -4.523067315471141631e-02 -9.789878603147939007e-02 -2.502506706656992819e-02 -5.893516830281560898e-02 -5.575232392330323195e-02 -3.815359567346818248e-02 -4.697003931929451953e-02 -3.369347290158689751e-02 -9.033614584482370369e-02 -9.036753599464454612e-02 -1.073713123351607984e-01 -1.011229647360600142e-01 -1.153425588329067969e-01 -9.018218838745536980e-02 -7.911628560455535863e-02 -1.641661272289207940e-01 -8.137724157408068870e-02 -6.748621774020513442e-02 -1.050270254856255359e-01 -1.300817242139890306e-01 -1.017548206185496240e-01 -1.794426498206867227e-01 -1.895824160916959877e-01 -1.614646064586074126e-01 -1.860026263679812608e-01 -1.682813898647493867e-01
5.482752997996269417e-02 1.461471235962189807e-01 -3.570612964960728775e-01 -1.396387925431148647e+00 -1.760136708260033656e+00 -1.175423222538303669e+00 -3.544122897037030318e-01 -3.569762574450495718e-01 1.224674915120566553e-02 3.075468069816879590e-01 -3.100413723174922156e-02 -5.552600202075549385e-01 -7.494594481157978993e-01 -6.838807896620173743e-01 -4.646225195403856922e-01 -2.556464714443751340e-01 -3.591490212988873026e-02 -1.620218791778118839e-01 1.191548216512332004e-01 1.496228156072570148e-01 5.665368448068572871e-01 5.024192985434693393e-01 4.893364034650630190e-01 8.167955914822697672e-01 8.978471258906711716e-01 8.804250639652330124e-01 1.160168430483644819e+00 1.076641699762247661e+00 8.968543664763442003e-01 6.305750829437443139e-01 7.862862054506633003e-01 9.758029566065319349e-01 4.922090889762752997e-01 6.831006439772222549e-01 6.406832981907506497e-01 8.165450773254526728e-01 5.712188344393359651e-01 5.860382315121454022e-01 6.585812508317550051e-01 5.643024980804546287e-01 7.342878515724646782e-01 3.218607387730418323e-01 2.810026477621004326e-01 1.725728040753319870e-01 2.365359685443421678e-02 1.373719745255001790e-01 -4.365383652653920254e-02 -1.570657135229520385e-01 -2.587621546502875680e-01 -7.740288734186290265e-02 -8.865421521925281878e-02 4.394783455492183577e-02 -2.254342731463370997e-01 7.295700070267483253e-03 1.105254821756609107e-01 -1.767704889263332080e-01 1.173690193936402365e-01 -1.243487046510699245e-01 -2.516754577973850937e-01 -2.448209558027576727e-02 -4.560057297875563104e-02 -7.849484152886301858e-02 1.803203928613021090e-01 2.504056693301348613e-01 -2.058081969740390427e-01 -6.354918462176394577e-03 1.629150979906626162e-01 -4.175109008165321656e-02 -4.871485213259241220e-02 -2.048346307288693713e-01 3.020526130135971210e-02 6.950407671972701901e-03 1.796059875470394362e-01 2.350103694708513824e-01 3.697260948723524732e-01 2.170535169428323974e-01 1.696145453319689300e-01 3.153402260227535781e-01 4.082862116059124968e-01 3.450727342982256585e-01 1.831773253057171480e-01 3.082017660791822738e-02 2.124338779289757229e-01 1.027212420744339216e-01 -3.487447907524530988e-02 2.725350536087144809e-02 1.740805381189628187e-01 5.355270789019286187e-02 2.248675958434320776e-02 1.493171489332065782e-01 7.391431308824239488e-02 -3.691298112790268593e-02 1.163656327792856465e-01 2.232179665735790353e-01 2.310641012273548234e-01 2.648336890102894747e-01 1.544231131152293823e-01 -3.869762950660937673e-02 1.223028245336955505e-01 6.523923990151728192e-02 -1.828540159106241680e-01 8.201003728645919755e-02 8.818749527946490030e-02 4.051601981808367059e-02 1.846406111614636858e-01 2.390427821660239538e-01 1.212152781062013351e-01 2.379173001907538554e-01 2.143911860851198670e-01 1.306901471258027359e-01 1.507180014247272437e-01 1.678084053814186405e-01 7.869194560578390840e-02 9.069897025407465396e-02 3.494132324824041069e-02 1.011910207621818381e-01 3.643506840473426656e-01 3.159801941562338512e-01 3.862253383215975833e-02 2.290172349074438840e-01 3.191446918487155227e-01 7.797191878357101480e-02 1.147268084693481155e-01 2.020291730845001632e-01 -2.886922095433058777e-02 -6.025647022108174093e-03 -1.168676993624966215e-01 -6.620420200794847887e-02 1.311317519435929377e-02 4.677582427559473510e-02 -6.389301757972327966e-02 -1.262883342297311910e-02 2.926222068698629622e-02 -1.457194572763043927e-01 7.308011121534957466e-02 -2.284186505265782888e-02 4.102003528900653034e-02 -2.834835949381914535e-02 -4.127035015617875301e-03 1.505772114642530898e-02 -2.760713722108389112e-02 2.717228479625402593e-02 4.400741997169964337e-02 -1.053787001461100291e-02 -2.422007514177482862e-02 5.377441354056829853e-02 -7.547416353186469154e-03 -2.323094482857774798e-02 -1.186429266412092863e-02 -4.077337342930296982e-02 5.104013107142056638e-02 4.548642174020173928e-02 1.201597033650296867e-02 7.635107181827370526e-02 3.671501971035282755e-04 5.176753318177745172e-02 -1.179304667999995365e-02 -6.906888139397639181e-02 -2.449936908758951204e-02 -8.323585247224500605e-02 -7.089498242000506767e-02 -1.341891594050106828e+00 -1.483334269494800850e+00 -1.628828415974256094e+00 -1.509266494468580078e+00 -1.188025158327518094e+00 -9.031023312961136140e-01 -4.940520874115076899e-01 -3.650021225864354402e-01 -8.488030413935329088e-01 -1.364760121023311346e+00 -1.474381487433444216e+00 -1.013820611017419493e+00 -1.332114458428487191e+00 -1.163784902915949715e+00 -1.000569566024813728e+00 -7.915959495865128037e-01 -4.611656140119070879e-01 -3.900428389896946624e-01 -2.989201648794598265e-01 -1.491560818324392801e-01 -1.678010799911925088e-01 2.468682999628465380e-01 4.562872734276920972e-01 4.103516762933814288e-01 7.093809693771792046e-01 7.550346196752861783e-01 9.659308222917952769e-01 1.310283637842723614e+00 1.488763678212587482e+00 1.474292611552151744e+00 1.637324481013185951e+00 1.964759301734672725e+00 2.113754648487405685e+00 2.430029255418966194e+00 1.804514598012975757e+00 1.895078336850646750e+00 2.042587314110181129e+00 2.217954443725189240e+00 1.830759523455735005e+00 1.883521134138327335e+00 2.151953558247050591e+00 1.950879523368697521e+00 1.989138745245366380e+00 1.463342252700434276e+00 1.030074893135060732e+00 7.962368340403688238e-01 8.621864382796333715e-01 6.513819967576955916e-01 6.119873079594243537e-01 2.769045789510122257e-01 3.288702630589313558e-01 1.710608674909058213e-01 -1.209126834674867784e-01 -2.808769125688411750e-01 -1.683160769245472810e-01 -2.305466332887599612e-01 -4.784215535261227559e-01 -1.257576195353079240e-01 -3.403376118843708942e-01 -4.994904559050931669e-01 -8.157755522741865217e-01 -8.171661459279111472e-01 -1.019058739873824893e+00 -1.033911050768641982e+00 -8.360530622773797438e-01 -1.195363599664922116e+00 -1.286128825881971416e+00 -1.095860685557267900e+00 -1.159468123098884584e+00 -1.091479370241662972e+00 -1.131283795407438175e+00 -6.105473556367638777e-01 -8.585576366876053189e-01 -7.421588894705114514e-01 -8.099775625351600672e-01 -8.171320763718400437e-01 -7.559722900370886567e-01 -7.010036255793317128e-01 -8.009163885039670694e-01 -1.096774847688884114e+00 -9.984926782645145993e-01 -7.900427619860832529e-01 -8.112267227211684695e-01 -8.061578563185901602e-01 -7.835752870068304343e-01 -9.104110818653490256e-01 -9.978684314892781737e-01 -1.024809936220049345e+00 -8.198749602176785833e-01 -8.264834203025928083e-01 -6.809849942466127404e-01 -8.545885332858598193e-01 -6.885291555988575229e-01 -5.015835282042386822e-01 -4.399761405254243307e-01 -5.999120910998405609e-01 -4.776680428335245421e-01 -4.858839623798729135e-01 -4.216901473686655577e-01 -4.552971735497555739e-01 -5.552803546202389473e-01 -4.582325532161339310e-01 -3.212519722105001696e-01 -4.880434367461130019e-01 -7.742078508656969893e-01 -7.769281175954675378e-01 -5.640859261673343283e-01 -4.502869183216676174e-01 -4.339342498076646515e-01 -3.287829986339357302e-01 -2.336746242330592915e-01 -3.591955395375462379e-01 -2.949264606016522849e-01 -2.866473198616972251e-01 -1.554048255891508357e-01 -2.503762878358876121e-01 -2.361504020042857477e-01 -2.165829268461678947e-01 -8.223139627613501590e-02 -1.110813054161258612e-01 -1.127399008102297900e-01 -1.034265818837628442e-01 -3.877675413560800061e-02 -5.932471282892166214e-03 2.518584613302864497e-02 -8.365538055152801911e-02 -1.428136639487860050e-02 -6.345796070869784422e-02 -8.420090062897878092e-02 -2.279221464603730166e-02 -6.883619403232511813e-02 -1.264901882936846911e-01 8.158326723913129908e-02 1.189910780465633644e-01 1.417981420073655408e-01 1.443943237315591654e-01 1.715501326085571154e-01 3.052664274219785701e-01 2.697364531605242477e-01 2.409197586792976853e-01 2.233124236398100759e-01 1.638302575373283554e-01 1.460594049905903080e-01 7.981716363813001758e-02 -5.994546130641440623e-02 -1.799099613366173522e-01 9.867037931548449867e-03 -5.561502150233004621e-02 3.243896434132954171e-02 -4.397472637391995447e-03 3.172601603636989592e-02 -2.975826720316568016e-02 1.283744916020723714e-01 1.923028033145253446e-02 6.739335218766684399e-02 -8.815826371739551165e-03 -6.738342601891616872e-03 6.215409978512464323e-02 -6.612431568049768893e-03 6.387426994042898210e-02 2.810541904690825460e-02 -5.288012369952909547e-02 8.960712653765987024e-02 8.746615487418166190e-02 2.433444393856393217e-01 8.632498193045028134e-02 -9.374018952139873476e-03 -1.007488352115737673e-01 -1.534036473869306028e-01 -1.073707974495758666e-01 -1.569105806556152505e-01 -1.606227266867537584e-01 -1.555810288009702169e-01 -1.299431517930407232e-01 -1.572901078488614379e-01 -1.563666051277944058e-01 -2.216072015025504771e-01 -2.934156384695188469e-01 -2.441868518925227327e-01 -2.702195633860148272e-01 -4.013647484906150975e-01 -3.319074646733695122e-01 -3.043096762678885736e-01 -2.800057758235731109e-01 -2.059403071645693195e-01 -2.023464978692659788e-01 -1.682593558601838957e-01 -1.472326554636965434e-01 -1.699540896737786189e-01 -1.900375954881947105e-01 -2.289290448742310469e-01 -1.365765056628724661e-01 -1.359583866392003459e-01 -2.319009142346047936e-01 -1.824726458558062758e-01 -2.246963409564150249e-01 -2.464671373817752253e-01 -2.264354134463426871e-01 -2.855841723168984214e-01 -2.076192890836727756e-01 -2.819291175353212942e-01 -2.819999800668546164e-01 -2.283659498320265158e-01 -2.271199565871808435e-01 -2.710377895503435774e-01 -2.092169290725396369e-01 -2.041959141630355912e-01 -1.405751427756681549e-01 -1.786908980428134897e-01 -1.978474352784905521e-01 -1.803122951119837114e-01 -1.586499612022362893e-01 -2.006824304531464043e-01 -2.514450462924978646e-01 -1.797672221816618288e-01 -1.673429073152674917e-01 -1.022692548950102642e-01 -1.174779700404231658e-01 -1.947857899292791406e-01 -2.028537831383863677e-01 -1.468389846695663248e-01 -5.432674717114143598e-02 -2.563196629412993477e-02 -4.941539138793835800e-02 -1.170460413820949147e-01 -1.901459187465274481e-01 -1.898135319186570191e-01 -2.323876224317972528e-01 -1.829876702643352671e-01 -1.443326294107733776e-01 -4.129069056524880404e-02 -1.646782355189861102e-01 -2.140960391221163051e-01 -1.991413622662323302e-01 -2.315983102092647461e-01 -1.837761186110097589e-01 -1.595324950694505806e-01 -1.786209293360540296e-01 -2.178781494997705792e-01 -2.912146961577950499e-01 -2.487173604888870959e-01 -2.557664748158946511e-01 -2.577041526011976114e-01 -3.286435884896193871e-01 -3.125950512318579344e-01 -2.717115279582684728e-01 -2.419914405015649861e-01 -2.857927943686947025e-01 -2.374805226776616207e-01 -2.646812270495055297e-01 -2.649196982333051897e-01 -2.815924389404127481e-01 -2.276578501673605370e-01 -2.422316024615526753e-01 -2.853352957933307787e-01 -2.979061280357797603e-01 -2.512950205161919581e-01 -2.458454854532121647e-01 -2.383865268020516348e-01 -1.615809911005579025e-01 -1.728348649140437066e-01 -2.419907195099112729e-01 -2.351973839851436154e-01 -2.355956490910088297e-01 -2.303723197390149802e-01 -2.409377425261707006e-01 -1.505189090359531912e-01 -1.683655124408055537e-01 -1.941068500309819922e-01 -1.761834750575702047e-01 -1.844829538486394416e-01 -2.077415478667976878e-01 -1.542494077035133637e-01 -1.657641803572346140e-01 -2.249613340427897012e-01 -2.262833258880075082e-01 -1.950579550339218982e-01 -1.387426979904003710e-01 -1.585800660917277560e-01 -1.618385444392079764e-01 -1.355231266840128956e-01 -1.493231319144125435e-01 -1.563948490501567146e-01 -2.002222791395175117e-01 -1.661552764330501419e-01 -2.326041492938982214e-01 -2.572729358473391237e-01 -1.765222090246991726e-01 -2.156889523881686810e-01 -2.330724090363940626e-01 -1.790415251542819830e-01 -1.269187979576668068e-01 -1.864150595844742686e-01 -1.839104001617969386e-01 -1.345834184300949699e-01 -1.691495965843622107e-01 -1.613296270499141316e-01 -2.047270340362667418e-01 -1.799815193323607287e-01 -2.000622546841583083e-01 -2.228205068745814643e-01 -1.784187926064388918e-01 -1.737715940533172410e-01 -1.888974013502686677e-01 -1.933736628508817557e-01 -1.664380055484279697e-01 -1.902103988101568888e-01 -1.334587621834511795e-01 -1.500291689479332224e-01 -9.179262607658339457e-02 -1.790402804404586934e-01 -1.581305115960119356e-01 -1.437401027111290530e-01 -1.161959284655789404e-01 -1.273011590677346205e-01 -2.016769633416415075e-01 -1.227382921354999434e-01 -1.343925864512543755e-01 -1.580698727737429587e-01 -1.359490016361459552e-01 -1.433827518475664087e-01 -1.212787739207654425e-01 -1.672116606840401143e-01 -1.504718730946743299e-01 -1.063696530677202962e-01 -1.247930968307509880e-01 -1.565532010373272831e-01 -1.758708707465189980e-01 -2.034452613641555552e-01 -1.043147573967998926e-01 -1.409886479067149201e-01 -1.901043053436982100e-01 -1.799877600114717091e-01 -1.623552112695053617e-01 -2.359785262821686158e-01 -1.755311739881734723e-01 -1.632309306907227531e-01 -1.253946475068840050e-01 -1.574346229327462932e-01 -1.365760557841849965e-01 -1.566556385602787260e-01 -1.609635950709028540e-01 -1.791285669363777144e-01 -1.723150894802384647e-01 -1.690817869038479526e-01 -1.605686217851716169e-01 -9.979009255040835469e-02 -1.021440929023844091e-01 -1.170931037263781144e-01 -7.187330461764140921e-02 -7.269261407359187133e-02 -8.886905735460287614e-02 -6.418908547246797436e-02 -1.379324980546645374e-01 -1.092618609805725560e-01 -1.137057642355263215e-01 -1.107216938811272366e-01 -1.131324139313877042e-01 -9.102352711096521609e-02 -5.828410923480757677e-02 -7.554721359091727539e-02 -6.801051351093455322e-02 -7.882717757947299564e-02 -3.918908787011599060e-02 -6.928242881169532907e-02 -4.034839235995565238e-02 -6.226659427058475055e-02 -2.446739966278547659e-02 -3.720353038566712178e-02 -6.440774680412482411e-02 -3.878227679460675287e-02 -6.524293045590345841e-02 1.399843814407613404e-03 -4.028657430392468784e-03 -1.549667836150394294e-02 -2.816720931716175380e-02 -4.303925132831155215e-02 -1.682674539909660705e-02 -1.464109359905169626e-02 7.535291612069434930e-02 -6.920658782130694950e-03 5.363532406280514808e-02 5.569921982245788078e-02 5.370398647137177017e-02 1.400917138202859881e-02 7.670026915319201610e-02 5.775492390140660875e-02 6.768905145712944549e-02 1.193554535490198576e-01 5.747405847290426584e-02
-1.128369652638042259e-01 9.375720447245301514e-01 1.143414835238982574e+00 8.796563676274959942e-01 7.692822144750729452e-01 2.652541643793359522e-02 -2.545024414169111404e-01 -1.372829770265554528e-01 2.321649812302821470e-02 2.118048797672077155e-01 5.909650858162398546e-01 1.067302476347697482e+00 1.254402663283663788e+00 1.200189191150885959e+00 9.695973228466262528e-01 8.415639840167548069e-01 4.462300606285444782e-01 5.121038151693831919e-01 1.899041398322056373e-01 -2.202187423928257948e-01 -9.406364929461261681e-01 -8.026111880021811196e-01 -9.321158364396466833e-01 -9.092517626327968339e-01 -9.494125450368687824e-01 -1.411908504760092331e+00 -1.707589648372161317e+00 -1.628398988743259945e+00 -1.360840013535144166e+00 -1.512651971224997061e+00 -9.855089277849413687e-01 -1.403208851891545539e+00 -1.315487811607988666e+00 -1.212596033194261347e+00 -1.091257584656468049e+00 -8.285372124042799102e-01 -8.095450258084189166e-01 -1.017895030588407801e+00 -8.086335041840314597e-01 -9.439934104320401032e-01 -1.143360003965600669e+00 -5.080157669310275681e-01 -6.191932162995248401e-01 -4.926361960677692609e-01 -2.173264617808436383e-01 -6.666327421704364153e-02 -1.272688288657510165e-02 1.165951998132641887e-01 -5.057848244349841954e-02 -4.647801060970071368e-02 -2.255399076047485407e-01 -9.150107496002052310e-02 -3.510307325778046494e-01 -5.165896666975365870e-01 -4.581133707592681126e-01 -4.450819694435856344e-01 -3.907061533542322551e-01 -1.984600265949266751e-01 -1.469350496949904938e-01 -5.071055286444268312e-02 -4.997408183853502273e-02 -4.852878424985926364e-02 -1.683536057451758827e-01 -2.047373711007629271e-01 -1.292998686747871551e-01 -1.227936995255082681e-01 -1.593819159017248188e-01 -1.352363132008030100e-01 -6.554896417080309512e-02 2.378451128758045374e-02 -4.258173377564959672e-02 -1.118652560990987949e-01 -1.552541300185472095e-01 -1.921398221380802088e-02 -1.477349403282759155e-01 -1.955503693965362222e-01 -2.643474636302897696e-01 -2.765668403666967645e-01 -1.970727395383311542e-01 -2.472864044839888920e-01 -2.275100097329098570e-01 -1.134682955122318371e-01 -1.647688521255160354e-01 -1.794215510196676688e-01 -6.260750041182090719e-02 -1.277058352478425696e-01 -1.287458053433069016e-01 -1.679049544586381226e-01 -1.854881216737909733e-01 -1.568796275855026678e-01 -1.965975008581803685e-01 -2.402896841819674723e-01 -1.878866117857208307e-01 -1.634925299567345502e-01 -1.884865631993054569e-01 -1.899397336360989993e-02 -6.831347214670099866e-02 1.093725864669300024e-01 -2.481554779731886401e-02 -7.062068462324622500e-03 -8.084158433672739008e-02 -9.292303496057657819e-02 -7.932810626474526283e-02 -8.566123273928752391e-02 -1.555240433363828667e-01 -1.538187531613395553e-01 -2.011099616479027075e-01 -2.605225098738629952e-01 -2.199066724118307337e-01 -2.599592049183566678e-01 -3.006439008730650841e-01 -2.487962429462975689e-01 -2.563823742465449751e-01 -1.940713308951093896e-01 -2.147142452291004033e-01 -2.019741190420300814e-01 -1.365646558853873538e-01 -1.325527529195150989e-01 -9.383949277431399838e-02 -1.101877157926341860e-02 -3.167413899862454169e-02 3.910919734796707709e-02 -2.134791417403009844e-02 -1.572146137525565548e-02 1.771253364206687789e-02 5.314699879714138153e-02 3.126747293931379096e-02 8.456167520248498992e-02 8.954718263062379224e-02 2.768402675412122774e-02 -9.101760137048650612e-03 1.171096745515003319e-02 6.288022223810599276e-03 -4.432517785697063367e-02 2.310055431490663064e-04 -1.567040243454581941e-02 -3.262101554302540563e-02 1.409409478027030295e-02 5.339109174089285564e-02 4.098807407365838429e-02 6.704586580130442175e-02 1.098176447466492622e-01 6.712541806342603445e-02 9.369785645608431912e-02 1.379883478275104602e-01 1.238021091947760915e-01 1.372619354232882949e-01 1.279037869906914648e-01 1.410950108991163576e-01 1.905369334254900515e-01 1.382218812848702849e-01 2.155496675353963665e-01 2.017428951525195024e-01 1.985535223503809010e-01 1.918367637107034618e-01 1.984295324906150959e-01 2.300583621863623307e-01 2.580998181850199247e-01 2.737462805892226236e-01 2.796172441997581415e-01 2.377049211918478289e-01 9.108447972578200824e-01 9.850903003569605465e-01 1.549797679967287678e+00 1.890843224769579223e+00 1.485600762460313584e+00 1.118652516555576959e+00 6.327329359103872619e-01 2.428268596443200478e-01 -4.130416553257082457e-02 -6.454324000470615386e-02 2.740562025967450133e-01 3.830423845413840067e-01 4.435264612847967802e-01 5.674575096358490667e-01 5.069534617555679912e-01 5.712933532421994309e-01 3.243989395934728792e-01 -5.819224065594175849e-02 -4.301618613970244198e-02 -3.050404020596088617e-01 -3.306891581106500277e-01 -3.927595075431948302e-01 -4.525386957809471866e-01 -5.015416722822996221e-01 -7.043796335577260370e-01 -7.203952998594936874e-01 -1.217192367870250980e+00 -1.175058301206927558e+00 -9.459799280651727260e-01 -7.686705398096976838e-01 -1.106723262905954686e+00 -1.247342015810967153e+00 -1.414640100846875193e+00 -1.585191942337246251e+00 -1.358996692077687474e+00 -1.359954395498373048e+00 -1.199535782503672765e+00 -9.578240075504462769e-01 -1.044685827288555746e+00 -1.203529735123652245e+00 -1.692489282510143189e+00 -1.418034683760140080e+00 -1.298043268436724462e+00 -1.457091533992050936e+00 -1.115694833554333520e+00 -8.335451986922916001e-01 -7.918235029803167846e-01 -5.159115039270890657e-01 -1.227822551202866763e-01 2.177324518400615416e-01 -4.829314545751528520e-02 -1.737869512165563513e-01 2.459768075457449410e-01 2.013352585237666859e-01 3.667949892303262183e-01 5.327188389669619273e-01 6.134663159029334345e-01 1.889415527531431993e-01 9.777044881096980111e-01 8.260597988319831053e-01 1.298265172621834385e+00 1.237542405861690842e+00 9.404026174639141811e-01 8.830617594724665675e-01 9.121406268714890020e-01 1.186026394305859322e+00 1.214355081653624602e+00 1.127152429790163168e+00 1.336570808445245229e+00 1.055948618381600923e+00 8.299995552288518263e-01 7.268185493726950774e-01 1.016840063623606794e+00 8.557071296799217963e-01 1.025894349533768901e+00 1.003579375399813678e+00 8.815318834674278348e-01 9.939898043072521450e-01 1.112980140198957191e+00 1.206119948664785113e+00 1.063271807672617086e+00 7.936542196578503239e-01 7.732934842553325083e-01 1.323125504483023684e+00 8.994881148195321696e-01 1.137630175581529679e+00 9.065398096918921844e-01 7.265854670470801580e-01 6.419252052859172331e-01 5.577074228836698122e-01 3.638117752579047015e-01 4.257008422712408313e-01 4.395920925458878803e-01 6.572796579207148548e-01 8.860157691155170490e-01 8.047783482175975278e-01 7.268685427766092833e-01 7.591799471891941264e-01 6.175205022427356916e-01 6.229160283564616485e-01 7.589720027560582505e-01 8.467379187073756919e-01 8.452042374724447749e-01 1.059814355773117445e+00 1.206099602938697890e+00 1.378232367334631281e+00 1.025920134957896579e+00 1.002999327377837924e+00 1.007920506195916444e+00 8.352515645717710768e-01 9.290732597651798486e-01 1.015082554434296958e+00 9.385848782878875030e-01 9.531422379007772339e-01 9.987326912740980278e-01 1.123336167624327420e+00 1.041600473746837618e+00 9.965378372245840000e-01 1.128003544596805519e+00 1.014673981187429241e+00 7.528528331766758397e-01 5.846069341566977329e-01 4.587568077259830401e-01 2.344003629414544987e-01 1.215880602424329049e-01 1.463242599238545882e-01 1.113934780298804841e-02 1.711902789171367845e-01 1.241722128570161843e-01 1.288130574049530797e-01 2.561477989628551666e-01 3.440252973041016959e-01 2.677089542096279251e-01 1.321861241549248112e-01 3.076660098495893544e-02 9.871214425456180386e-02 -2.171860223589934871e-02 -1.534191757877448603e-01 -2.639970971122712062e-01 -1.465941701866746161e-01 -3.412920995311790606e-01 -2.530060934596892186e-01 -2.878963781877904582e-01 -2.438752433804569353e-01 -4.559787566385659074e-01 -4.507576876351921391e-01 -4.686504987034481040e-01 -3.872175510129030052e-01 -3.104928758770636454e-01 -3.662142893176300040e-01 -4.881805681198277402e-01 -4.680314586703988589e-01 -5.024377039099775510e-01 -5.228092203720200448e-01 -4.285419013913440711e-01 -3.715006714077882521e-01 -4.425616765627178872e-01 -5.013248036220122605e-01 -4.828953498394999433e-01 -5.014184609685682359e-01 -3.290967899817914266e-01 -1.772494948075025445e-01 -3.990256827763045133e-01 -5.983963295767565915e-01 -5.787538445878326332e-01 -5.435539905839029684e-01 -6.620367776719182640e-01 -6.713165055174370455e-01 -6.227409155316541156e-01 -7.590537616647192731e-01 -6.902157335205580946e-01 -7.576751439052717974e-01 -6.404654007001727711e-01 -6.916644064798289637e-01 -7.278337275098358816e-01 -6.941790765114237427e-01 -6.798420786560904761e-01 -6.804646806002513371e-01 -6.985806859880259179e-01 -6.693401573599081500e-01 -5.390878228771210923e-01 -6.004690373537345804e-01 -5.689219810804360122e-01 -6.206497213230740551e-01 -6.200620654218259586e-01 -5.568428405967124073e-01 -5.451148738739536315e-01 -5.643437604187719892e-01 -5.462522440038960481e-01 -5.825603409806318078e-01 -5.009938046069500883e-01 -4.934768317554086847e-01 -5.101583910776794628e-01 -5.031148007116122978e-01 -5.617581182769358916e-01 -4.643690312487568361e-01 -4.206833475375286735e-01 -4.751068328122680096e-01 -4.286103694860873281e-01 -5.091875350909447207e-01 -4.980353994050945032e-01 -5.242159472114041874e-01 -4.360801304355136354e-01 -4.369068634630558501e-01 -3.521914422423661484e-01 -4.338037241282838852e-01 -4.045391289008656299e-01 -4.858109684948485052e-01 -4.286803926172862433e-01 -3.646536265413910516e-01 -3.794207604087807550e-01 -3.580786422334509833e-01 -4.306750751513017672e-01 -3.886608087265841505e-01 -3.569484905690640253e-01 -3.858114963362865302e-01 -3.926199155176355871e-01 -3.945001240201299608e-01 -3.355122110860784268e-01 -3.754179671310191591e-01 -4.020244108809027384e-01 -3.826090002821445624e-01 -3.510548468267618016e-01 -3.026867904928590147e-01 -2.859501115192096266e-01 -3.119640604298288822e-01 -2.662841601356181753e-01 -2.520244041190166651e-01 -2.447290237761750864e-01 -1.915074498354968624e-01 -2.148177150463560781e-01 -2.043437200539507947e-01 -1.306673457928451965e-01 -1.948265369102399058e-01 -1.586070743664392824e-01 -1.121956297569865202e-01 -1.398290601389509114e-01 -4.852639399539122878e-02 -1.403535279253931012e-01 -1.102094939734780538e-01 -1.506505166608605450e-01 -1.297479984389027230e-01 -6.212036865186296164e-02 -9.381287555415279700e-02 -1.423170784836409741e-01 -1.404949843577913970e-01 -9.409851670204852359e-02 -1.402076870424411592e-01 -1.041903479937947713e-01 -5.229346751136840915e-02 -1.271360976320664096e-02 -4.494969848857049977e-02 -6.913384153203140647e-02 2.171879885412368247e-02 -7.000253396236175152e-02 -8.975297530315186345e-02 -6.774598939989318058e-02 -2.430349186780181303e-02 1.140102806046756553e-02 6.651394630403657804e-03 -4.685194465958614218e-02 -5.237218774160801865e-02 -2.169640404663231159e-02 -7.457381720653685937e-03 -5.152815528688877225e-03 -7.709557214612457188e-02 -3.589098707222683482e-02 3.579720727281092418e-02 3.919423681259501073e-03 1.606063667688880509e-02 -3.383538023743635353e-02 -6.271269183906812150e-02 -7.519160918349770961e-02 2.536468905256225939e-02 5.616915156453811120e-02 1.162452643900092342e-01 9.912406376245436190e-02 2.257501468028980454e-02 -3.639195271149272409e-02 4.030201204080532604e-03 1.530643141685321049e-02 -3.022890453602401425e-02 -4.282035763533508649e-02 -2.319745362520896081e-02 1.475135853124826674e-02 7.888355715891172404e-03 1.258739687213221957e-02 2.453548262784746234e-02 4.267603686254838047e-02 4.789537973534419013e-02 4.940380805283831056e-02 6.670612826790722934e-03 7.911433572384229951e-02 6.541054250789703206e-02 4.467810021489255351e-02 7.504743347328705905e-02 5.664556140635883946e-02 1.094218862502623763e-01 1.078280973403307613e-01 1.332814814193638009e-01 8.010542990629265780e-02 1.068710238755609526e-01 6.365829208137185891e-02 6.636895864058937888e-02 1.256648492025870811e-01 1.100253070818507511e-01 1.030385633985132499e-01 6.580580517335832269e-02 1.341694066970494925e-01 6.807321815400577125e-02 1.167136857558371543e-01 9.780758961133428908e-02 5.371473947794547926e-02 9.728084229120351201e-02 1.489978481749525477e-02 5.945609290500381006e-02 1.188305484787018779e-01 1.592685688161708246e-01 7.582863949125798197e-02 1.331236438427390589e-01 1.777267050976584495e-01 1.694590739715152172e-01 1.528694999113587860e-01 1.089292219083929231e-01 7.816395422419845918e-02 6.692048202566780457e-02 7.642288926006768346e-02 1.122314141120361319e-01 1.296061174486194678e-01 1.457002380221087412e-01 8.732909499881023885e-02 1.201138041885045638e-01 1.018400053319612197e-01 1.031945569546166286e-01 1.684275065628047519e-01 1.268794517698728086e-01 6.660111053432964112e-02 8.171707051532509092e-02 9.823430823937294443e-02 1.041762375363985138e-01 7.225748568378084769e-02 8.203028798450463788e-02 9.472500497132829711e-02 9.351623260673024018e-02 1.601146255301410526e-01 8.652115583653939568e-02 5.831320874165183549e-02 5.192545265994977233e-02 1.045780913773152881e-01 1.614655995779383790e-01 9.828220139631498042e-02 1.210760799594582937e-01 1.085678341204458358e-01 9.944446712207927197e-02 8.472211691776003473e-02 1.104450496872094178e-01 7.025628420284706077e-02 7.754177905917869484e-02 1.089989914949368865e-01 6.328434639848737331e-02 1.229186135197478241e-01 8.596240530011393932e-02 7.938424660664761268e-02 7.218714437961769315e-02 1.145131019664071409e-01 1.382471783914341334e-01 8.729166133715490772e-02 8.340256796560056862e-02 9.295585430897081169e-02 1.025613424775931176e-01 8.575231611390178588e-02 9.893640335748950243e-02 8.893630203041660853e-02 9.439619342503513533e-02 1.228679906966673036e-01 1.292901740532230170e-01 1.583818101612187168e-01 1.070089337865502560e-01 9.375737920360562028e-02 8.881321110822905374e-02 8.829790035621246092e-02 1.385089367740022052e-02 4.932780566316949389e-02 7.637773774261548410e-02 8.774564923652050652e-02 1.027423806674935408e-01 1.318274921902887198e-01 9.377555500147792544e-02 6.664717281896080647e-02 1.108073313918455233e-01
